digraph Tree {
node [shape=box, style="filled", color="black", fontname="helvetica"] ;
edge [fontname="helvetica"] ;
0 [label="odor_n <= 0.5\ngini = 0.5\nsamples = 6499\nvalue = [3349, 3150]\nclass = e", fillcolor="#fdf8f3"] ;
1 [label="stalk-root_c <= 0.5\ngini = 0.287\nsamples = 3701\nvalue = [643, 3058]\nclass = p", fillcolor="#63b2ea"] ;
0 -> 1 [labeldistance=2.5, labelangle=45, headlabel="True"] ;
2 [label="stalk-root_r <= 0.5\ngini = 0.132\nsamples = 3259\nvalue = [231, 3028]\nclass = p", fillcolor="#48a4e7"] ;
1 -> 2 ;
3 [label="spore-print-color_u <= 0.5\ngini = 0.05\nsamples = 3108\nvalue = [80, 3028]\nclass = p", fillcolor="#3ea0e6"] ;
2 -> 3 ;
4 [label="odor_l <= 0.5\ngini = 0.024\nsamples = 3065\nvalue = [37, 3028]\nclass = p", fillcolor="#3b9ee5"] ;
3 -> 4 ;
5 [label="odor_a <= 0.5\ngini = 0.012\nsamples = 3046\nvalue = [18, 3028]\nclass = p", fillcolor="#3a9ee5"] ;
4 -> 5 ;
6 [label="gini = 0.0\nsamples = 3028\nvalue = [0, 3028]\nclass = p", fillcolor="#399de5"] ;
5 -> 6 ;
7 [label="gini = 0.0\nsamples = 18\nvalue = [18, 0]\nclass = e", fillcolor="#e58139"] ;
5 -> 7 ;
8 [label="gini = 0.0\nsamples = 19\nvalue = [19, 0]\nclass = e", fillcolor="#e58139"] ;
4 -> 8 ;
9 [label="gini = 0.0\nsamples = 43\nvalue = [43, 0]\nclass = e", fillcolor="#e58139"] ;
3 -> 9 ;
10 [label="gini = 0.0\nsamples = 151\nvalue = [151, 0]\nclass = e", fillcolor="#e58139"] ;
2 -> 10 ;
11 [label="bruises_t <= 0.5\ngini = 0.127\nsamples = 442\nvalue = [412, 30]\nclass = e", fillcolor="#e78a47"] ;
1 -> 11 ;
12 [label="gini = 0.0\nsamples = 30\nvalue = [0, 30]\nclass = p", fillcolor="#399de5"] ;
11 -> 12 ;
13 [label="gini = 0.0\nsamples = 412\nvalue = [412, 0]\nclass = e", fillcolor="#e58139"] ;
11 -> 13 ;
14 [label="spore-print-color_r <= 0.5\ngini = 0.064\nsamples = 2798\nvalue = [2706, 92]\nclass = e", fillcolor="#e68540"] ;
0 -> 14 [labeldistance=2.5, labelangle=-45, headlabel="False"] ;
15 [label="stalk-surface-below-ring_y <= 0.5\ngini = 0.026\nsamples = 2742\nvalue = [2706, 36]\nclass = e", fillcolor="#e5833c"] ;
14 -> 15 ;
16 [label="cap-surface_g <= 0.5\ngini = 0.004\nsamples = 2700\nvalue = [2694, 6]\nclass = e", fillcolor="#e58139"] ;
15 -> 16 ;
17 [label="cap-shape_c <= 0.5\ngini = 0.001\nsamples = 2696\nvalue = [2694, 2]\nclass = e", fillcolor="#e58139"] ;
16 -> 17 ;
18 [label="cap-shape_b <= 0.5\ngini = 0.001\nsamples = 2695\nvalue = [2694, 1]\nclass = e", fillcolor="#e58139"] ;
17 -> 18 ;
19 [label="gini = 0.0\nsamples = 2587\nvalue = [2587, 0]\nclass = e", fillcolor="#e58139"] ;
18 -> 19 ;
20 [label="cap-surface_y <= 0.5\ngini = 0.018\nsamples = 108\nvalue = [107, 1]\nclass = e", fillcolor="#e5823b"] ;
18 -> 20 ;
21 [label="gini = 0.0\nsamples = 107\nvalue = [107, 0]\nclass = e", fillcolor="#e58139"] ;
20 -> 21 ;
22 [label="gini = 0.0\nsamples = 1\nvalue = [0, 1]\nclass = p", fillcolor="#399de5"] ;
20 -> 22 ;
23 [label="gini = 0.0\nsamples = 1\nvalue = [0, 1]\nclass = p", fillcolor="#399de5"] ;
17 -> 23 ;
24 [label="gini = 0.0\nsamples = 4\nvalue = [0, 4]\nclass = p", fillcolor="#399de5"] ;
16 -> 24 ;
25 [label="ring-number_o <= 0.5\ngini = 0.408\nsamples = 42\nvalue = [12, 30]\nclass = p", fillcolor="#88c4ef"] ;
15 -> 25 ;
26 [label="gini = 0.0\nsamples = 12\nvalue = [12, 0]\nclass = e", fillcolor="#e58139"] ;
25 -> 26 ;
27 [label="gini = 0.0\nsamples = 30\nvalue = [0, 30]\nclass = p", fillcolor="#399de5"] ;
25 -> 27 ;
28 [label="gini = 0.0\nsamples = 56\nvalue = [0, 56]\nclass = p", fillcolor="#399de5"] ;
14 -> 28 ;
}